<?xml version="1.0"?>
<opencv_storage>
<stage9>
  <maxWeakCount>4</maxWeakCount>
  <stageThreshold>-4.0888836979866028e-001</stageThreshold>
  <weakClassifiers>
    <_>
      <internalNodes>
        0 -1 14498 337781090 84215073 1612710296 -1659826174 268435582
        -1189999099 276961486 149897353</internalNodes>
      <leafValues>
        -7.9600000381469727e-001 4.8847925662994385e-001</leafValues></_>
    <_>
      <internalNodes>
        0 -1 9537 1375867154 1291845770 1325928797 -442990582
        -2105259617 -2105472896 553749639 -1037810669</internalNodes>
      <leafValues>
        -6.5062636137008667e-001 6.3479566574096680e-001</leafValues></_>
    <_>
      <internalNodes>
        0 -1 1369 -742046390 -803209147 16842752 1884323906 -734003190
        539492993 35061915 543169138</internalNodes>
      <leafValues>
        -8.7683075666427612e-001 4.7026947140693665e-001</leafValues></_>
    <_>
      <internalNodes>
        0 -1 7272 -666574680 687870190 -1878191925 -1425899518 590259
        -2138898399 -2058475008 -1173421560</internalNodes>
      <leafValues>
        -6.5533250570297241e-001 6.4068013429641724e-001</leafValues></_></weakClassifiers></stage9>
</opencv_storage>
